{"learner":{"attributes":{"scikit_learn":"{\"_estimator_type\": \"regressor\"}"},"feature_names":["feature_00","feature_01","feature_02","feature_03","feature_04","feature_05","feature_06","feature_07","feature_08","feature_09","feature_10","feature_11","feature_12","feature_13","feature_14","feature_15","feature_16","feature_17","feature_18","feature_19","feature_20","feature_21","feature_22","feature_23","feature_24","feature_25","feature_26","feature_27","feature_28","feature_29","feature_30","feature_31","feature_32","feature_33","feature_34","feature_35","feature_36","feature_37","feature_38","feature_39","feature_40","feature_41","feature_42","feature_43","feature_44","feature_45","feature_46","feature_47","feature_48","feature_49","feature_50","feature_51","feature_52","feature_53","feature_54","feature_55","feature_56","feature_57","feature_58","feature_59","feature_60","feature_61","feature_62","feature_63","feature_64","feature_65","feature_66","feature_67","feature_68","feature_69","feature_70","feature_71","feature_72","feature_73","feature_74","feature_75","feature_76","feature_77","feature_78"],"feature_types":["float","float","float","float","float","float","float","float","float","int","int","int","float","float","float","float","float","float","float","float","float","float","float","float","float","float","float","float","float","float","float","float","float","float","float","float","float","float","float","float","float","float","float","float","float","float","float","float","float","float","float","float","float","float","float","float","float","float","float","float","float","float","float","float","float","float","float","float","float","float","float","float","float","float","float","float","float","float","float"],"gradient_booster":{"model":{"gbtree_model_param":{"num_parallel_tree":"1","num_trees":"20"},"iteration_indptr":[0,1,2,3,4,5,6,7,8,9,10,11,12,13,14,15,16,17,18,19,20],"tree_info":[0,0,0,0,0,0,0,0,0,0,0,0,0,0,0,0,0,0,0,0],"trees":[{"base_weights":[-9.2527136E-4,-1.98565E-2,2.368839E-2,-1.1066645E-2,-7.001224E-2,5.4597635E-2,5.8200825E-3,-9.023768E-4,8.884614E-2,8.68466E-3,-2.1082053E-2,1.1033643E-2,5.5961963E-2,-2.9687098E-1,-5.146955E-2],"categories":[],"categories_nodes":[],"categories_segments":[],"categories_sizes":[],"default_left":[0,1,0,0,0,0,0,0,0,0,0,0,0,0,0],"id":0,"left_children":[1,3,5,9,13,11,7,-1,-1,-1,-1,-1,-1,-1,-1],"loss_changes":[1.3692351E2,7.322578E1,7.055638E1,5.0018494E1,3.1235939E1,3.239177E1,6.100463E1,0E0,0E0,0E0,0E0,0E0,0E0,0E0,0E0],"parents":[2147483647,0,0,1,1,2,2,6,6,3,3,5,5,4,4],"right_children":[2,4,6,10,14,12,8,-1,-1,-1,-1,-1,-1,-1,-1],"split_conditions":[2.5341797E-1,2.2058105E-1,-1.7858887E-1,-1.1315918E-1,-2.6542969E0,-5.569458E-3,2.0253906E0,-9.023768E-4,8.884614E-2,8.68466E-3,-2.1082053E-2,1.1033643E-2,5.5961963E-2,-2.9687098E-1,-5.146955E-2],"split_indices":[51,4,58,58,49,38,49,0,0,0,0,0,0,0,0],"split_type":[0,0,0,0,0,0,0,0,0,0,0,0,0,0,0],"sum_hessian":[2.93848E5,1.66097E5,1.27751E5,1.41329E5,2.4768E4,4.6798E4,8.0953E4,7.6042E4,4.911E3,5.9088E4,8.2241E4,1.3907E4,3.2891E4,3.2E2,2.4448E4],"tree_param":{"num_deleted":"0","num_feature":"79","num_nodes":"15","size_leaf_vector":"1"}},{"base_weights":[1.4520553E-3,4.38143E-2,-6.385493E-2,9.633255E-2,2.1563316E-2,-3.2181825E-2,-1.1441352E-1,-1.2907352E-1,-1.983514E-2,2.1390649E-2,9.4186455E-2,-3.3294443E-2,4.7306947E-2,5.311105E-2,1.0573076E-2],"categories":[],"categories_nodes":[],"categories_segments":[],"categories_sizes":[],"default_left":[0,0,0,0,0,0,0,0,0,0,0,0,0,0,0],"id":1,"left_children":[1,3,5,9,13,11,7,-1,-1,-1,-1,-1,-1,-1,-1],"loss_changes":[8.1459186E2,2.08703E2,1.8551276E2,8.920035E1,4.674707E1,6.92618E1,2.0241345E2,0E0,0E0,0E0,0E0,0E0,0E0,0E0,0E0],"parents":[2147483647,0,0,1,1,2,2,6,6,3,3,5,5,4,4],"right_children":[2,4,6,10,14,12,8,-1,-1,-1,-1,-1,-1,-1,-1],"split_conditions":[1.0601807E-1,-5.8740234E-1,6.772461E-1,-7.470703E-1,-1.1708984E0,7.739258E-1,5.209961E-1,-1.2907352E-1,-1.983514E-2,2.1390649E-2,9.4186455E-2,-3.3294443E-2,4.7306947E-2,5.311105E-2,1.0573076E-2],"split_indices":[6,6,6,59,56,59,59,0,0,0,0,0,0,0,0],"split_type":[0,0,0,0,0,0,0,0,0,0,0,0,0,0,0],"sum_hessian":[2.94443E5,1.78595E5,1.15848E5,5.3149E4,1.25446E5,7.1227E4,4.4621E4,2.8372E4,1.6249E4,1.3875E4,3.9274E4,6.4E4,7.227E3,1.8449E4,1.06997E5],"tree_param":{"num_deleted":"0","num_feature":"79","num_nodes":"15","size_leaf_vector":"1"}},{"base_weights":[-2.027624E-3,1.4581617E-3,-1.2541841E-1,6.631E-2,-2.653514E-3,1.1014941E-2,-1.3685025E-2,-1.8383037E-1,1.4334092E-2,-2.1433728E0,1.7611457E-2,-2.217293E-1,-9.1553256E-2,4.4955812E-2,2.3087353E-1],"categories":[],"categories_nodes":[],"categories_segments":[],"categories_sizes":[],"default_left":[0,1,0,0,0,0,0,1,0,0,0,0,0,0,0],"id":2,"left_children":[1,3,7,13,5,-1,-1,11,9,-1,-1,-1,-1,-1,-1],"loss_changes":[1.2624621E2,7.6116264E1,6.58289E1,3.4010735E1,6.6979126E1,0E0,0E0,3.7933075E1,5.4023323E1,0E0,0E0,0E0,0E0,0E0,0E0],"parents":[2147483647,0,0,1,1,4,4,2,2,8,8,7,7,3,3],"right_children":[2,4,8,14,6,-1,-1,12,10,-1,-1,-1,-1,-1,-1],"split_conditions":[2.0820312E0,-1.6914062E0,1.7080078E0,2.5214844E0,-5.8624268E-2,1.1014941E-2,-1.3685025E-2,-5.9228516E-1,-3.0820312E0,-2.1433728E0,1.7611457E-2,-2.217293E-1,-9.1553256E-2,4.4955812E-2,2.3087353E-1],"split_indices":[6,56,59,14,7,0,0,54,44,0,0,0,0,0,0],"split_type":[0,0,0,0,0,0,0,0,0,0,0,0,0,0,0],"sum_hessian":[2.93518E5,2.85454E5,8.064E3,1.7019E4,2.68435E5,1.2622E5,1.42215E5,5.687E3,2.377E3,7E0,2.37E3,2.268E3,3.419E3,1.6397E4,6.22E2],"tree_param":{"num_deleted":"0","num_feature":"79","num_nodes":"15","size_leaf_vector":"1"}},{"base_weights":[2.4770948E-3,7.087177E-3,-4.651554E-2,4.9874664E-4,4.2347796E-2,1.3859316E-3,-1.4339206E-1,4.744073E-2,-5.838174E-3,-6.939312E-2,5.5496003E-3,-1.0811751E-5,4.5762053E-1,-1.2523115E0,-5.346887E-2],"categories":[],"categories_nodes":[],"categories_segments":[],"categories_sizes":[],"default_left":[0,0,1,0,0,0,0,0,0,1,0,0,0,0,0],"id":3,"left_children":[1,3,9,5,7,-1,-1,-1,-1,13,11,-1,-1,-1,-1],"loss_changes":[6.624976E1,6.2281742E1,3.0048595E1,5.3145473E1,3.8778694E1,0E0,0E0,0E0,0E0,2.3740952E1,2.488439E1,0E0,0E0,0E0,0E0],"parents":[2147483647,0,0,1,1,3,3,4,4,2,2,10,10,9,9],"right_children":[2,4,10,6,8,-1,-1,-1,-1,14,12,-1,-1,-1,-1],"split_conditions":[1.4902344E0,6.074219E-1,4.1918945E-1,3.0507812E0,4.5654297E-1,1.3859316E-3,-1.4339206E-1,4.744073E-2,-5.838174E-3,-3.8417969E0,2.7109375E0,-1.0811751E-5,4.5762053E-1,-1.2523115E0,-5.346887E-2],"split_indices":[19,60,18,78,14,0,0,0,0,58,52,0,0,0,0],"split_type":[0,0,0,0,0,0,0,0,0,0,0,0,0,0,0],"sum_hessian":[2.93322E5,2.68095E5,2.5227E4,2.25888E5,4.2207E4,2.24333E5,1.555E3,3.0807E4,1.14E4,1.7526E4,7.701E3,7.628E3,7.3E1,1E1,1.7516E4],"tree_param":{"num_deleted":"0","num_feature":"79","num_nodes":"15","size_leaf_vector":"1"}},{"base_weights":[-1.6014971E-3,-8.29888E-3,2.5386022E-2,4.1716225E-2,-1.3203708E-2,2.3645053E-2,5.663264E-1,2.6360396E-1,1.5430614E0,-8.2554644E-1,1.912316E-2,-8.062602E-3,-6.111421E-2,6.585792E-2,5.2600037E-3],"categories":[],"categories_nodes":[],"categories_segments":[],"categories_sizes":[],"default_left":[0,0,1,0,0,0,0,0,0,0,0,0,0,0,0],"id":4,"left_children":[1,3,5,13,11,9,7,-1,-1,-1,-1,-1,-1,-1,-1],"loss_changes":[5.3009865E1,5.764232E1,5.4915134E1,3.1317997E1,4.002381E1,5.3918133E1,6.0278E1,0E0,0E0,0E0,0E0,0E0,0E0,0E0,0E0],"parents":[2147483647,0,0,1,1,2,2,6,6,5,5,4,4,3,3],"right_children":[2,4,6,14,12,10,8,-1,-1,-1,-1,-1,-1,-1,-1],"split_conditions":[9.3310547E-1,-1.1220703E0,3.921875E0,-5.4229736E-2,1.7597656E0,-3.8417969E0,7.338867E-1,2.6360396E-1,1.5430614E0,-8.2554644E-1,1.912316E-2,-8.062602E-3,-6.111421E-2,6.585792E-2,5.2600037E-3],"split_indices":[55,6,58,68,5,58,17,0,0,0,0,0,0,0,0],"split_type":[0,0,0,0,0,0,0,0,0,0,0,0,0,0,0],"sum_hessian":[2.93284E5,2.34972E5,5.8312E4,2.0985E4,2.13987E5,5.8125E4,1.87E2,1.61E2,2.6E1,4.6E1,5.8079E4,2.04943E5,9.044E3,9.453E3,1.1532E4],"tree_param":{"num_deleted":"0","num_feature":"79","num_nodes":"15","size_leaf_vector":"1"}},{"base_weights":[5.3434767E-4,-1.7240182E-1,1.1957957E-3,-8.6711325E-2,-1.0745568E0,-6.0212463E-1,-2.878477E0,-9.394303E-2,1.0702707E0,1.0121811E-1,-3.1729328E-4,5.5271916E-2,3.0267844E-1,8.44715E-4,-5.785996E-2],"categories":[],"categories_nodes":[],"categories_segments":[],"categories_sizes":[],"default_left":[0,0,0,0,0,0,0,0,0,1,0,0,0,0,0],"id":5,"left_children":[1,3,9,7,5,-1,-1,-1,-1,11,13,-1,-1,-1,-1],"loss_changes":[3.3595867E1,8.650447E1,4.4280006E1,5.017163E1,7.6691765E1,0E0,0E0,0E0,0E0,3.7983658E1,2.9779234E1,0E0,0E0,0E0,0E0],"parents":[2147483647,0,0,1,1,4,4,3,3,2,2,9,9,10,10],"right_children":[2,4,10,8,6,-1,-1,-1,-1,12,14,-1,-1,-1,-1],"split_conditions":[-3.9570312E0,2.2109375E0,-2.40625E0,1.3457031E0,1.9042969E0,-6.0212463E-1,-2.878477E0,-9.394303E-2,1.0702707E0,1.2382812E0,2.7421875E0,5.5271916E-2,3.0267844E-1,8.44715E-4,-5.785996E-2],"split_indices":[60,76,7,7,17,0,0,0,0,15,33,0,0,0,0],"split_type":[0,0,0,0,0,0,0,0,0,0,0,0,0,0,0],"sum_hessian":[2.937E5,1.119E3,2.92581E5,1.022E3,9.7E1,8.7E1,1E1,9.99E2,2.3E1,4.36E3,2.88221E5,3.942E3,4.18E2,2.82858E5,5.363E3],"tree_param":{"num_deleted":"0","num_feature":"79","num_nodes":"15","size_leaf_vector":"1"}},{"base_weights":[-6.92386E-4,5.5974724E-5,-1.9163357E-1,-2.2988853E-1,1.3960999E0,-1.6799442E-1,-2.6970873E0,5.99094E-1,3.2110665E0,6.5301894E-4,-1.5660296E-1,-1.5784752E0,-9.685653E-2,-1.601637E-4,1.1204174E-1],"categories":[],"categories_nodes":[],"categories_segments":[],"categories_sizes":[],"default_left":[0,0,0,0,0,0,0,0,0,1,0,0,0,0,0],"id":6,"left_children":[1,9,3,5,7,-1,-1,-1,-1,13,11,-1,-1,-1,-1],"loss_changes":[4.209411E1,2.7445667E1,6.9875206E1,5.2970398E1,4.6028202E1,0E0,0E0,0E0,0E0,3.585291E1,6.75412E1,0E0,0E0,0E0,0E0],"parents":[2147483647,0,0,2,2,3,3,4,4,1,1,10,10,9,9],"right_children":[2,10,4,6,8,-1,-1,-1,-1,14,12,-1,-1,-1,-1],"split_conditions":[4.5273438E0,5.4804688E0,2.5019531E0,3.9082031E0,9.863281E-1,-1.6799442E-1,-2.6970873E0,5.99094E-1,3.2110665E0,2.4746094E0,-1.4638672E0,-1.5784752E0,-9.685653E-2,-1.601637E-4,1.1204174E-1],"split_indices":[7,72,67,30,15,0,0,0,0,52,1,0,0,0,0],"split_type":[0,0,0,0,0,0,0,0,0,0,0,0,0,0,0],"sum_hessian":[2.94585E5,2.93435E5,1.15E3,1.123E3,2.7E1,1.118E3,5E0,2.2E1,5E0,2.92321E5,1.114E3,1.9E1,1.095E3,2.90576E5,1.745E3],"tree_param":{"num_deleted":"0","num_feature":"79","num_nodes":"15","size_leaf_vector":"1"}},{"base_weights":[-7.9991954E-4,-1.703947E-3,1.1241242E-1,1.3329183E-1,-1.0239055E0,3.014626E-1,-1.5462893E0,1.355085E0,9.3516E-2,1.4690357E-1,-2.2948005E-3,-5.7797018E-3,1.128828E-2,1.1203995E0,1.0403541E-1],"categories":[],"categories_nodes":[],"categories_segments":[],"categories_sizes":[],"default_left":[0,0,0,0,1,0,0,0,0,0,1,0,0,0,0],"id":7,"left_children":[1,9,3,7,5,-1,-1,-1,-1,13,11,-1,-1,-1,-1],"loss_changes":[3.0115946E1,2.5632328E1,5.5315258E1,4.940629E1,5.684554E1,0E0,0E0,0E0,0E0,2.0250517E1,2.4904245E1,0E0,0E0,0E0,0E0],"parents":[2147483647,0,0,2,2,4,4,3,3,1,1,10,10,9,9],"right_children":[2,10,4,8,6,-1,-1,-1,-1,14,12,-1,-1,-1,-1],"split_conditions":[3.2128906E0,-1.6503906E0,5.6054688E0,-4.8867188E0,-1.550293E-1,3.014626E-1,-1.5462893E0,1.355085E0,9.3516E-2,-1.4238281E0,8.339844E-1,-5.7797018E-3,1.128828E-2,1.1203995E0,1.0403541E-1],"split_indices":[60,25,69,48,15,0,0,0,0,65,65,0,0,0,0],"split_type":[0,0,0,0,0,0,0,0,0,0,0,0,0,0,0],"sum_hessian":[2.94253E5,2.91922E5,2.331E3,2.289E3,4.2E1,1.7E1,2.5E1,1.9E1,2.27E3,1.156E3,2.90766E5,2.22815E5,6.7951E4,1.2E1,1.144E3],"tree_param":{"num_deleted":"0","num_feature":"79","num_nodes":"15","size_leaf_vector":"1"}},{"base_weights":[4.416005E-3,-1.8370569E-2,1.0257776E-2,2.4588864E-2,6.0075056E-4,1.6576584E-2,1.3858432E-1,-9.8894015E-3,1.8282197E-2,-1.7627338E-2,-4.731677E-1,-1.4730304E0,-2.4282563E-1,-1.4280912E-2,3.3082864E-1],"categories":[],"categories_nodes":[],"categories_segments":[],"categories_sizes":[],"default_left":[0,0,0,0,0,0,0,0,0,1,0,0,0,0,0],"id":8,"left_children":[1,9,3,5,7,-1,-1,-1,-1,13,11,-1,-1,-1,-1],"loss_changes":[3.921166E1,2.031743E1,3.244867E1,4.8358997E1,4.2432846E1,0E0,0E0,0E0,0E0,1.777988E1,2.2432842E1,0E0,0E0,0E0,0E0],"parents":[2147483647,0,0,2,2,3,3,4,4,1,1,10,10,9,9],"right_children":[2,10,4,6,8,-1,-1,-1,-1,14,12,-1,-1,-1,-1],"split_conditions":[-7.480469E-1,4.2148438E0,-1.2275696E-2,3.3769531E0,-2.2827148E-1,1.6576584E-2,1.3858432E-1,-9.8894015E-3,1.8282197E-2,2.4980469E0,-1.5634766E0,-1.4730304E0,-2.4282563E-1,-1.4280912E-2,3.3082864E-1],"split_indices":[52,78,59,68,68,0,0,0,0,50,23,0,0,0,0],"split_type":[0,0,0,0,0,0,0,0,0,0,0,0,0,0,0],"sum_hessian":[2.94572E5,6.0109E4,2.34463E5,9.4389E4,1.40074E5,9.2367E4,2.022E3,8.8571E4,5.1503E4,6.0011E4,9.8E1,1E1,8.8E1,5.992E4,9.1E1],"tree_param":{"num_deleted":"0","num_feature":"79","num_nodes":"15","size_leaf_vector":"1"}},{"base_weights":[-9.358589E-4,5.0338926E-3,-2.2853805E-2,1.3038802E-1,-2.6778743E-2,1.3505762E-2,-1.0259412E-2,1.283704E-3,-7.568784E-2,2.1199735E-2,-4.25402E-3,3.7120032E-1,5.9086848E-2,-4.6682898E-2,-1.0904617E-2],"categories":[],"categories_nodes":[],"categories_segments":[],"categories_sizes":[],"default_left":[0,0,0,0,0,0,0,0,0,0,0,0,0,0,0],"id":9,"left_children":[1,5,3,11,13,9,7,-1,-1,-1,-1,-1,-1,-1,-1],"loss_changes":[3.8502113E1,2.996377E1,3.7886528E1,2.9692741E1,2.5984592E1,3.8531387E1,8.510951E1,0E0,0E0,0E0,0E0,0E0,0E0,0E0,0E0],"parents":[2147483647,0,0,2,2,1,1,6,6,5,5,3,3,4,4],"right_children":[2,6,4,12,14,10,8,-1,-1,-1,-1,-1,-1,-1,-1],"split_conditions":[2.7392578E-1,1.9152832E-1,-1.8828125E0,-2.1328125E0,-5.151367E-1,-2.3669434E-1,7.2753906E-1,1.283704E-3,-7.568784E-2,2.1199735E-2,-4.25402E-3,3.7120032E-1,5.9086848E-2,-4.6682898E-2,-1.0904617E-2],"split_indices":[67,7,28,53,7,69,30,0,0,0,0,0,0,0,0],"split_type":[0,0,0,0,0,0,0,0,0,0,0,0,0,0,0],"sum_hessian":[2.94258E5,2.31268E5,6.299E4,1.573E3,6.1417E4,1.48825E5,8.2443E4,7.2492E4,9.951E3,8.6502E4,6.2323E4,2.15E2,1.358E3,1.7157E4,4.426E4],"tree_param":{"num_deleted":"0","num_feature":"79","num_nodes":"15","size_leaf_vector":"1"}},{"base_weights":[-1.5286306E-3,-1.5996277E-1,-9.142132E-4,-2.2080632E-1,5.0771827E-1,-8.061207E-1,9.788802E-1,-9.915295E-3,-3.1401956E-1,-5.9489124E-3,1.6220085E-2,4.895723E-3,5.714163E-2,1.6600025E-3,-1.7233284E-2],"categories":[],"categories_nodes":[],"categories_segments":[],"categories_sizes":[],"default_left":[0,0,0,0,0,0,0,0,0,0,0,0,0,0,0],"id":10,"left_children":[1,3,9,7,5,-1,-1,-1,-1,13,11,-1,-1,-1,-1],"loss_changes":[2.8677843E1,4.6240494E1,2.53159E1,3.9408024E1,1.0942653E2,0E0,0E0,0E0,0E0,2.955035E1,3.7785503E1,0E0,0E0,0E0,0E0],"parents":[2147483647,0,0,1,1,4,4,3,3,2,2,10,10,9,9],"right_children":[2,4,10,8,6,-1,-1,-1,-1,14,12,-1,-1,-1,-1],"split_conditions":[-4.9921875E0,6.1757812E0,2.1289062E-1,-1.4099121E-1,-5.048828E-1,-8.061207E-1,9.788802E-1,-9.915295E-3,-3.1401956E-1,-2.0694733E-3,7.919922E-1,4.895723E-3,5.714163E-2,1.6600025E-3,-1.7233284E-2],"split_indices":[49,68,59,30,61,0,0,0,0,59,75,0,0,0,0],"split_type":[0,0,0,0,0,0,0,0,0,0,0,0,0,0,0],"sum_hessian":[2.94601E5,1.138E3,2.93463E5,1.043E3,9.5E1,3.1E1,6.4E1,4.86E2,5.57E2,2.26816E5,6.6647E4,5.6744E4,9.903E3,1.5115E5,7.5666E4],"tree_param":{"num_deleted":"0","num_feature":"79","num_nodes":"15","size_leaf_vector":"1"}},{"base_weights":[4.931917E-4,-8.035402E-4,6.44394E-2,8.348423E-2,-2.0611289E-1,-7.9647176E-2,-1.1553265E0,-2.3620164E-4,-1.4544863E-1,-9.4297636E-1,-9.1571085E-2,2.479286E-4,-1.122552E-1,1.7103252E0,6.362884E-2],"categories":[],"categories_nodes":[],"categories_segments":[],"categories_sizes":[],"default_left":[0,0,0,0,0,0,0,0,0,0,0,0,0,0,0],"id":11,"left_children":[1,7,3,13,5,-1,-1,11,9,-1,-1,-1,-1,-1,-1],"loss_changes":[2.4427567E1,2.3694225E1,3.0170116E1,2.2537838E1,5.104802E1,0E0,0E0,2.2874847E1,3.3700462E1,0E0,0E0,0E0,0E0,0E0,0E0],"parents":[2147483647,0,0,2,2,4,4,1,1,8,8,7,7,3,3],"right_children":[2,8,4,14,6,-1,-1,12,10,-1,-1,-1,-1,-1,-1],"split_conditions":[1.8652344E0,4.3476562E0,9.5214844E-1,-3.8613281E0,7.949219E-1,-7.9647176E-2,-1.1553265E0,2.6855469E0,-2.6835938E0,-9.4297636E-1,-9.1571085E-2,2.479286E-4,-1.122552E-1,1.7103252E0,6.362884E-2],"split_indices":[29,6,5,6,22,0,0,56,36,0,0,0,0,0,0],"split_type":[0,0,0,0,0,0,0,0,0,0,0,0,0,0,0],"sum_hessian":[2.94588E5,2.88733E5,5.855E3,5.47E3,3.85E2,3.56E2,2.9E1,2.87605E5,1.128E3,2.9E1,1.099E3,2.865E5,1.105E3,5E0,5.465E3],"tree_param":{"num_deleted":"0","num_feature":"79","num_nodes":"15","size_leaf_vector":"1"}},{"base_weights":[1.4542935E-4,-9.600033E-2,1.2704695E-3,-2.4124952E-1,-2.2664387E-2,-4.1036E-2,-3.4842572E-1,-2.7544409E-2,7.140187E-1,-4.0086494E-3,1.6956689E-2,-1.0542318E-3,3.5753448E-2,3.8656144E-4,-2.6416466E-2],"categories":[],"categories_nodes":[],"categories_segments":[],"categories_sizes":[],"default_left":[0,0,0,0,0,0,0,0,0,0,0,0,0,0,0],"id":12,"left_children":[1,3,9,5,7,-1,-1,-1,-1,13,11,-1,-1,-1,-1],"loss_changes":[3.1835428E1,3.625971E1,2.409018E1,4.4212173E1,2.6785044E1,0E0,0E0,0E0,0E0,2.9252146E1,3.869601E1,0E0,0E0,0E0,0E0],"parents":[2147483647,0,0,1,1,3,3,4,4,2,2,10,10,9,9],"right_children":[2,4,10,6,8,-1,-1,-1,-1,14,12,-1,-1,-1,-1],"split_conditions":[-2.3066406E0,-6.738281E-1,1.2490234E0,-1.5322266E0,2.2890625E0,-4.1036E-2,-3.4842572E-1,-2.7544409E-2,7.140187E-1,6.357422E-1,3.6254883E-1,-1.0542318E-3,3.5753448E-2,3.8656144E-4,-2.6416466E-2],"split_indices":[55,5,50,5,22,0,0,0,0,7,23,0,0,0,0],"split_type":[0,0,0,0,0,0,0,0,0,0,0,0,0,0,0],"sum_hessian":[2.94315E5,3.404E3,2.90911E5,1.142E3,2.262E3,5.95E2,5.47E2,2.232E3,3E1,2.17659E5,7.3252E4,4.4817E4,2.8435E4,1.89114E5,2.8545E4],"tree_param":{"num_deleted":"0","num_feature":"79","num_nodes":"15","size_leaf_vector":"1"}},{"base_weights":[1.323205E-3,-6.451889E-3,1.3413122E-2,1.2531221E-2,3.6049715E-1,8.908455E-2,1.1087124E0,-5.744487E-3,-2.7656266E-1,-1.4922027E-1,-1.6289362E0,1.0437049E-2,-2.0718947E-1,9.201599E-2,-5.1175496E-3],"categories":[],"categories_nodes":[],"categories_segments":[],"categories_sizes":[],"default_left":[0,0,1,1,0,0,0,0,0,0,0,0,0,0,0],"id":13,"left_children":[1,7,3,11,5,-1,-1,13,9,-1,-1,-1,-1,-1,-1],"loss_changes":[2.7676786E1,3.423955E1,3.5273964E1,2.6905191E1,7.6265594E1,0E0,0E0,1.7959787E1,7.231872E1,0E0,0E0,0E0,0E0,0E0,0E0],"parents":[2147483647,0,0,2,2,4,4,1,1,8,8,3,3,7,7],"right_children":[2,8,4,12,6,-1,-1,14,10,-1,-1,-1,-1,-1,-1],"split_conditions":[1.4953613E-1,1.3808594E0,5.984375E0,2.4980469E0,7.553711E-1,8.908455E-2,1.1087124E0,-3.4335938E0,4.0820312E0,-1.4922027E-1,-1.6289362E0,1.0437049E-2,-2.0718947E-1,9.201599E-2,-5.1175496E-3],"split_indices":[37,38,47,50,78,0,0,37,69,0,0,0,0,0,0],"split_type":[0,0,0,0,0,0,0,0,0,0,0,0,0,0,0],"sum_hessian":[2.94433E5,1.79193E5,1.1524E5,1.14948E5,2.92E2,2.37E2,5.5E1,1.78725E5,4.68E2,4.47E2,2.1E1,1.14601E5,3.47E2,1.167E3,1.77558E5],"tree_param":{"num_deleted":"0","num_feature":"79","num_nodes":"15","size_leaf_vector":"1"}},{"base_weights":[-3.088888E-3,-4.580922E-2,-1.4878121E-3,2.9597166E-1,-5.4971814E-2,1.60713E0,1.2392115E-1,-4.9543507E-2,2.1945956E-1,-3.8545602E-3,2.920444E-2,1.43769635E-2,1.3195819E-1,-1.7352698E-2,3.7690616E-4],"categories":[],"categories_nodes":[],"categories_segments":[],"categories_sizes":[],"default_left":[0,0,0,0,0,0,0,0,0,0,0,0,0,0,0],"id":14,"left_children":[1,3,9,5,7,-1,-1,-1,-1,13,11,-1,-1,-1,-1],"loss_changes":[2.0165104E1,3.3352844E1,2.0642212E1,6.724306E1,2.9670265E1,0E0,0E0,0E0,0E0,2.1032572E1,3.068436E1,0E0,0E0,0E0,0E0],"parents":[2147483647,0,0,1,1,3,3,4,4,2,2,10,10,9,9],"right_children":[2,4,10,6,8,-1,-1,-1,-1,14,12,-1,-1,-1,-1],"split_conditions":[-1.7939453E0,-1.4550781E0,7.758789E-1,-3.9570312E0,2.6367188E0,1.60713E0,1.2392115E-1,-4.9543507E-2,2.1945956E-1,-3.7841797E-1,6.1523438E0,1.43769635E-2,1.3195819E-1,-1.7352698E-2,3.7690616E-4],"split_indices":[53,25,68,60,41,0,0,0,0,60,64,0,0,0,0],"split_type":[0,0,0,0,0,0,0,0,0,0,0,0,0,0,0],"sum_hessian":[2.94818E5,1.065E4,2.84168E5,2.78E2,1.0372E4,2E1,2.58E2,1.0116E4,2.56E2,2.63824E5,2.0344E4,1.8888E4,1.456E3,5.0373E4,2.13451E5],"tree_param":{"num_deleted":"0","num_feature":"79","num_nodes":"15","size_leaf_vector":"1"}},{"base_weights":[7.0339674E-4,-3.746691E-2,3.2499738E-3,4.4130653E-2,-6.1071258E-2,4.1047294E-2,-6.075409E-1,1.6907816E-1,-5.2919377E-2,4.1386797E-3,-6.816752E-2,-8.9647824E-1,-4.158674E-2,4.016146E-2,2.056711E-3],"categories":[],"categories_nodes":[],"categories_segments":[],"categories_sizes":[],"default_left":[0,0,0,0,0,0,0,0,0,0,0,0,0,0,0],"id":15,"left_children":[1,3,9,5,7,-1,-1,-1,-1,13,11,-1,-1,-1,-1],"loss_changes":[2.8607815E1,3.545325E1,1.7511227E1,2.8757267E1,2.6705471E1,0E0,0E0,0E0,0E0,1.9386734E1,5.452367E1,0E0,0E0,0E0,0E0],"parents":[2147483647,0,0,1,1,3,3,4,4,2,2,10,10,9,9],"right_children":[2,4,10,6,8,-1,-1,-1,-1,14,12,-1,-1,-1,-1],"split_conditions":[-1.1523438E0,-1.5429688E0,2.1386719E0,5.3085938E0,-8.852539E-1,4.1047294E-2,-6.075409E-1,1.6907816E-1,-5.2919377E-2,-1.6113281E0,-3.0058594E0,-8.9647824E-1,-4.158674E-2,4.016146E-2,2.056711E-3],"split_indices":[59,45,23,12,78,0,0,0,0,6,49,0,0,0,0],"split_type":[0,0,0,0,0,0,0,0,0,0,0,0,0,0,0],"sum_hessian":[2.94308E5,1.8407E4,2.75901E5,4.13E3,1.4277E4,4.088E3,4.2E1,3.38E2,1.3939E4,2.7251E5,3.391E3,4.6E1,3.345E3,8.391E3,2.64119E5],"tree_param":{"num_deleted":"0","num_feature":"79","num_nodes":"15","size_leaf_vector":"1"}},{"base_weights":[-4.6397745E-5,-8.224003E-2,1.2366117E-3,-5.424744E-2,-5.267581E-1,-4.765038E-1,2.4181156E0,-2.8449716E-2,-3.567627E-1,2.731889E-2,-2.1387981E-3,2.669623E-2,-6.1431203E-2,2.6191288E-1,-1.8645483E-3],"categories":[],"categories_nodes":[],"categories_segments":[],"categories_sizes":[],"default_left":[0,0,0,0,1,0,0,0,0,1,0,0,0,0,0],"id":16,"left_children":[1,3,9,7,5,-1,-1,-1,-1,11,13,-1,-1,-1,-1],"loss_changes":[3.104761E1,5.6304443E1,2.5521458E1,3.0517643E1,8.155631E1,0E0,0E0,0E0,0E0,2.4258018E1,2.1695679E1,0E0,0E0,0E0,0E0],"parents":[2147483647,0,0,1,1,4,4,3,3,2,2,9,9,10,10],"right_children":[2,4,10,8,6,-1,-1,-1,-1,12,14,-1,-1,-1,-1],"split_conditions":[-2.2402344E0,5.3085938E0,-3.7548828E-1,1.1455078E0,1.0957031E0,-4.765038E-1,2.4181156E0,-2.8449716E-2,-3.567627E-1,9.53125E-1,-2.5605469E0,2.669623E-2,-6.1431203E-2,2.6191288E-1,-1.8645483E-3],"split_indices":[57,12,1,74,4,0,0,0,0,73,4,0,0,0,0],"split_type":[0,0,0,0,0,0,0,0,0,0,0,0,0,0,0],"sum_hessian":[2.94415E5,4.525E3,2.8989E5,4.257E3,2.68E2,2.62E2,6E0,4.077E3,1.8E2,3.3217E4,2.56673E5,3.1191E4,2.026E3,1.9E2,2.56483E5],"tree_param":{"num_deleted":"0","num_feature":"79","num_nodes":"15","size_leaf_vector":"1"}},{"base_weights":[9.3930704E-4,-1.16115265E-1,1.8708025E-3,-1.643147E-1,3.8891065E-1,1.7041565E-1,1.8437098E0,2.334672E-1,-1.6043493E-1,-7.7484567E-3,8.716963E-3,8.069559E-3,-1.9356932E-2,7.4053425E-3,-1.4958745E-1],"categories":[],"categories_nodes":[],"categories_segments":[],"categories_sizes":[],"default_left":[0,0,0,0,0,0,0,0,0,0,0,0,0,0,0],"id":17,"left_children":[1,3,9,7,5,-1,-1,-1,-1,11,13,-1,-1,-1,-1],"loss_changes":[3.2028194E1,5.6454956E1,1.9191538E1,4.048063E1,6.797767E1,0E0,0E0,0E0,0E0,3.7377644E1,2.6324512E1,0E0,0E0,0E0,0E0],"parents":[2147483647,0,0,1,1,4,4,3,3,2,2,9,9,10,10],"right_children":[2,4,10,8,6,-1,-1,-1,-1,12,14,-1,-1,-1,-1],"split_conditions":[-3.3574219E0,1.3378906E0,-3.1811523E-1,-6.3623047E-1,2.7382812E0,1.7041565E-1,1.8437098E0,2.334672E-1,-1.6043493E-1,-1.1224365E-1,1.8828125E0,8.069559E-3,-1.9356932E-2,7.4053425E-3,-1.4958745E-1],"split_indices":[59,22,72,29,12,0,0,0,0,7,35,0,0,0,0],"split_type":[0,0,0,0,0,0,0,0,0,0,0,0,0,0,0],"sum_hessian":[2.9374E5,2.319E3,2.91421E5,2.117E3,2.02E2,1.86E2,1.6E1,1.73E2,1.944E3,1.2117E5,1.70251E5,5.8802E4,6.2368E4,1.69598E5,6.53E2],"tree_param":{"num_deleted":"0","num_feature":"79","num_nodes":"15","size_leaf_vector":"1"}},{"base_weights":[-1.1446647E-3,6.333424E-2,-2.4096493E-3,1.5306605E0,5.3681437E-2,3.3128698E0,6.9402033E-1,2.927502E-1,2.2414712E-2,4.9013294E-2,-4.0228474E-3,1.9641408E-1,2.4125371E-2,-3.5548802E-3,1.0412237E-1],"categories":[],"categories_nodes":[],"categories_segments":[],"categories_sizes":[],"default_left":[0,0,0,0,0,0,0,0,0,0,0,0,0,0,0],"id":18,"left_children":[1,3,9,5,7,-1,-1,-1,-1,11,13,-1,-1,-1,-1],"loss_changes":[2.404443E1,8.03326E1,2.3983835E1,6.427522E1,4.520999E1,0E0,0E0,0E0,0E0,3.2258553E1,2.0499094E1,0E0,0E0,0E0,0E0],"parents":[2147483647,0,0,1,1,3,3,4,4,2,2,9,9,10,10],"right_children":[2,4,10,6,8,-1,-1,-1,-1,12,14,-1,-1,-1,-1],"split_conditions":[-2.0976562E0,-2.171875E0,-1.921875E0,-1.8994141E0,-1.4453125E0,3.3128698E0,6.9402033E-1,2.927502E-1,2.2414712E-2,-3.6816406E-1,4.4648438E0,1.9641408E-1,2.4125371E-2,-3.5548802E-3,1.0412237E-1],"split_indices":[24,2,58,49,38,0,0,0,0,77,59,0,0,0,0],"split_type":[0,0,0,0,0,0,0,0,0,0,0,0,0,0,0],"sum_hessian":[2.94789E5,5.672E3,2.89117E5,3.7E1,5.635E3,7E0,3E1,4.06E2,5.229E3,8.794E3,2.80323E5,7.21E2,8.073E3,2.79242E5,1.081E3],"tree_param":{"num_deleted":"0","num_feature":"79","num_nodes":"15","size_leaf_vector":"1"}},{"base_weights":[-6.582533E-4,-2.87631E-3,3.4547888E-2,4.481029E-2,-8.743077E-2,1.2902284E-1,2.4927925E-2,-1.724971E0,-6.2013302E-2,-1.5761571E-2,1.9534132E-3,9.857244E-3,-1.0368519E-2,9.702029E-3,-2.2096332E-2],"categories":[],"categories_nodes":[],"categories_segments":[],"categories_sizes":[],"default_left":[1,0,1,0,0,0,0,0,0,0,0,0,0,0,0],"id":19,"left_children":[1,9,3,5,7,-1,-1,-1,-1,13,11,-1,-1,-1,-1],"loss_changes":[2.3006031E1,1.7247734E1,2.185793E1,2.4978825E1,2.2920412E1,0E0,0E0,0E0,0E0,2.6736841E1,3.2799023E1,0E0,0E0,0E0,0E0],"parents":[2147483647,0,0,2,2,3,3,4,4,1,1,10,10,9,9],"right_children":[2,10,4,6,8,-1,-1,-1,-1,14,12,-1,-1,-1,-1],"split_conditions":[2.1367188E0,-4.2651367E-1,1.0662842E-1,-1.5283203E0,-1.2080078E0,1.2902284E-1,2.4927925E-2,-1.724971E0,-6.2013302E-2,-1.125E0,7E0,9.857244E-3,-1.0368519E-2,9.702029E-3,-2.2096332E-2],"split_indices":[42,5,1,37,58,0,0,0,0,24,10,0,0,0,0],"split_type":[0,0,0,0,0,0,0,0,0,0,0,0,0,0,0],"sum_hessian":[2.94612E5,2.77151E5,1.7461E4,1.6106E4,1.355E3,1.554E3,1.4552E4,5E0,1.35E3,7.5561E4,2.0159E5,1.18538E5,8.3052E4,2.3276E4,5.2285E4],"tree_param":{"num_deleted":"0","num_feature":"79","num_nodes":"15","size_leaf_vector":"1"}}]},"name":"gbtree"},"learner_model_param":{"base_score":"-6.619702E-3","boost_from_average":"1","num_class":"0","num_feature":"79","num_target":"1"},"objective":{"name":"reg:squarederror","reg_loss_param":{"scale_pos_weight":"1"}}},"version":[2,1,3]}